// Auto-generated from TinyMLP (scikit-learn)
#pragma once

// Layer 0 weights: shape = (5, 32)
float W0[5][32] = {
  {0.02835468, 0.14086672, 0.30674526, -0.03819840, -0.21138162, -0.16592091, -0.29324924, 0.56502786, 0.36010870, 0.38404695, -0.42754064, 0.29778419, 0.05451774, -0.26631671, -0.26933592, -0.44357519, 0.22232321, 0.09616826, -0.23641609, -0.18335324, 0.27026388, -0.44407286, -0.12067428, -0.03446374, 0.10194493, 0.50547406, -0.16803462, -0.15784022, -0.12141396, -0.62419383, -0.01327572, -0.15495157},
  {-0.62965907, 0.62156640, 0.60665370, 0.55632481, -0.32674814, -0.49695460, 0.08275850, -0.36828566, -0.65184137, 0.12948198, -0.10407370, 0.30790166, 0.07642554, 0.35282590, 0.03060274, 0.09606679, -0.44216219, -0.63475198, 0.61405161, 0.35812651, 0.11511341, 0.34388958, 0.45180577, 0.63663587, -0.79437184, -0.67727662, -0.21713360, 0.10240970, 0.21776230, -0.07441028, 0.36168594, -0.27981202},
  {0.01365143, 0.10667663, -0.02487746, -0.00137188, -0.70470127, 0.26395511, 0.11515650, -0.17165048, -0.31873193, 0.90811466, 0.29898634, 0.30254435, 0.20905435, -0.21812882, -0.11479204, -0.12138368, -0.00027291, 0.15353945, -0.01679402, -0.66281150, -0.09885272, -0.02737805, 0.23412219, 0.31636924, 0.18364728, 0.00684973, -0.18671534, 0.04040173, 0.02416318, -0.03745738, 0.26227484, 0.09275912},
  {0.14585655, -0.27814898, -0.26319767, -0.42647186, -0.31287707, 0.22134296, -0.08690428, 0.27554874, 0.60663190, 0.01010739, -0.11222662, 0.12467682, -0.42837341, -0.37584244, -0.17952378, -0.46302299, 0.72661836, 0.32362063, -0.07296848, 0.28820853, 0.42442356, -0.40566293, 0.36284201, 0.10446749, 0.38552405, 0.59033265, -0.07085928, -0.48153699, -0.40906558, -0.31820860, 0.15502193, 0.39930231},
  {-0.67683366, 0.26698400, 0.16720461, 0.08670956, -0.47906349, -0.30355134, 0.29135161, -0.46530823, -0.33506952, 0.29487437, 0.16018521, 0.35758581, 0.64283617, 0.01992503, 0.18093046, -0.08278927, -0.65399710, -0.75294468, 0.32485933, 0.14311322, -0.60140428, -0.15294756, 0.69698532, 0.08147614, -0.74792228, -0.44233996, 0.54042600, 0.03532481, 0.44812521, 0.31874360, -0.11533609, 0.01873042},
};

// Layer 1 weights: shape = (32, 16)
float W1[32][16] = {
  {0.44218937, -0.27757686, 0.00000000, -0.24571916, 0.30717088, 0.51645489, -0.11501925, -0.22491634, 0.08492048, -0.00000000, -0.55642767, -0.00808084, -0.23570180, -0.38272448, -0.18505374, -0.20929887},
  {-0.60193644, 0.05633604, -0.00000000, 0.39394142, -0.20824166, -0.42600523, 0.58641074, 0.65360453, -0.18939975, 0.11633779, 0.78639428, 0.44444091, 0.53089410, 0.66196849, -0.30902136, 0.24431595},
  {-0.49962932, 0.11531730, 0.00000000, 0.14821131, 0.07848468, -0.04893401, 0.72764330, 1.03831853, 0.00192938, -0.05378420, 0.66089865, 0.32366951, 0.30460098, 0.40415987, 0.08068927, 0.14310523},
  {0.12154060, 0.66795814, 0.00000000, 0.16374360, -0.66612104, 0.20817320, 0.48547459, 0.67731732, 0.26803893, 0.19119188, 0.35732212, 0.11904935, 0.64026747, 0.89485081, -0.25446693, 0.25011830},
  {0.66415301, -0.09854344, -0.00000000, -0.38302097, 0.62613653, 0.23238791, -0.32539150, -0.08937195, 0.24545468, -0.00000000, 0.21555078, -0.09544396, -0.11294597, 0.11669623, 0.20332911, 0.00588491},
  {0.42620288, 0.19384712, 0.00000000, 0.00640066, 0.44556868, 0.01487450, -0.01373532, 0.22895146, 0.23480684, -0.15644182, 0.19196840, -0.32900465, 0.05177018, -0.43021480, -0.07115124, 0.00075515},
  {-0.21705270, 0.12733948, -0.00000000, -0.25251279, 0.18788895, -0.04676556, -0.15904552, 0.01708082, 0.15093646, -0.23038068, 0.10022621, -0.23182401, -0.22137734, 0.19351658, 0.00712589, 0.16368642},
  {0.33685943, -0.08584557, 0.00000000, -0.63023861, 0.33699803, -0.03658488, -0.60209936, -0.47815751, -0.05087336, 0.00000000, 0.06761666, -0.38222866, -0.54523982, -0.31298651, -0.02238088, -0.24975592},
  {0.19271036, -0.29918123, -0.00000000, -0.66802335, 0.43440375, 0.34113841, -0.53783095, -0.16508041, -0.05541800, -0.00518842, -0.33522564, -0.33686270, -0.86155718, -0.32842904, -0.00002892, -0.45280899},
  {0.77454791, 0.00154469, -0.00000000, -0.70269930, 0.85390908, -0.20022773, -0.59944015, -0.02526476, -0.11753237, 0.04130481, 0.31655537, -0.40049610, -0.25855729, 0.03762516, -0.02110423, 0.10774765},
  {0.37153010, -0.11177588, -0.00000000, 0.26320802, 0.12015416, 0.02918934, 0.42489046, 0.01234645, -0.12101873, 0.04083398, 0.28585208, 0.18039123, 0.43608700, 0.21470895, 0.28503048, 0.26132214},
  {-0.04079947, -0.24347546, -0.00000000, -0.22718124, 0.07557838, 0.14963987, -0.15888226, -0.08507162, 0.19487295, -0.37356138, 0.24037478, -0.11705948, -0.12044422, 0.89412201, 0.06927537, 0.35223545},
  {-0.08062333, 0.56385460, 0.00000000, -0.00002419, -0.21323058, 0.19100687, 0.98512063, 0.28868491, -0.15489036, 0.13587505, 0.33444061, 0.50264812, 0.70786979, 1.41035371, 0.15510092, 0.34373710},
  {0.04208193, 0.12230100, -0.00000000, 0.15688130, 0.21123315, 0.43281613, -0.30835687, -0.77883270, 0.25932212, -0.06194264, -0.33400574, 0.21392904, 0.16417667, 0.41335855, 0.08180738, -0.23441834},
  {-0.20774016, 0.05516300, 0.00000000, 0.37420486, 0.23285025, 0.07177923, 0.08179169, 0.22419393, -0.35057897, -0.03009106, 0.36944226, 0.39506702, 0.15984608, 0.25569271, -0.25283102, 0.32731936},
  {0.29134163, -0.43726016, -0.00000000, 0.14245438, -0.04874605, 0.28801792, 0.04622900, -0.49807871, -0.31693648, 0.00000000, -0.10711240, -0.17349371, 0.16081813, 0.31818139, 0.32430792, 0.07064059},
  {0.09099638, -0.80014758, 0.00000000, -0.57292748, 0.11705094, 0.44434184, -1.14826149, -0.31236068, -0.38388850, -0.06045353, -0.56607423, -0.86860852, -0.89130599, -0.72063827, 0.14565312, -0.20180156},
  {0.45056343, -0.46177032, 0.00000000, 0.10198327, -0.07879079, 0.47343634, -0.88694805, -0.01845566, -0.33270216, 0.17377694, -0.25517603, 0.08492218, -0.78748268, -0.41862886, 0.03846742, -0.20553022},
  {-0.33037735, 0.41448970, -0.00000000, 0.27084017, -0.24655025, 0.10333392, 0.12263698, 0.98923307, 0.26155357, 0.22522469, 0.89242555, 0.23288027, 0.22144359, 0.50502952, -0.04744719, 0.10645158},
  {0.09644720, -0.03423261, 0.00000000, 0.63361953, 0.22100508, -0.00361360, 0.38739867, 0.60651720, 0.05352052, -0.26938255, 0.64820530, 0.27483688, 0.71107487, 0.44896479, 0.05868866, 0.00447295},
  {0.51305694, -0.02902365, -0.00000000, -0.72461132, 0.07720372, 0.28250506, -0.09436283, -0.27573088, 0.01122511, -0.10629728, 0.26740589, -0.19980944, -0.01539631, -0.34257073, -0.02669221, -0.06260245},
  {-0.10869881, 0.29094628, -0.00000000, 0.40217887, 0.48089077, 0.40779869, 0.26149973, -0.13837669, 0.21623506, -0.16246862, -0.44114411, -0.21910955, 0.35542988, 0.64969838, -0.19629814, 0.06294555},
  {0.13210415, 0.09153661, -0.00000000, 0.31776207, 0.13562503, -0.00605592, 0.33298202, 0.85622511, -0.02425041, -0.00873287, 0.81477954, 0.07938141, 0.06781471, 0.09932370, 0.15784279, 0.44901043},
  {0.18785204, -0.03976711, -0.00000000, -0.16157353, 0.07116995, -0.15102006, 0.18079630, 0.41986892, 0.23237754, -0.15430392, 0.61969594, 0.36670842, 0.19685257, 0.42990138, 0.23286813, 0.59067425},
  {-0.13425206, -0.03353058, -0.00000000, -0.26518443, 0.04416285, 0.70493809, -0.50543348, -0.70068079, 0.07564469, -0.17482430, -0.91829027, -0.48174638, -0.69420368, -0.51344402, -0.09079536, -0.19854996},
  {-0.07157679, -0.56338918, 0.00000000, -0.47792271, 0.25116545, -0.14287858, -0.95050804, -0.52789146, -0.26077722, -0.18188527, -0.32910111, -0.75062262, -0.92075945, -0.62531737, -0.06154179, -0.24850802},
  {-0.08318609, 0.33362617, -0.00000000, 0.42124624, 0.00832234, -0.44783522, 0.70597489, 0.79617587, -0.35807567, -0.20932342, 0.82717515, 0.29561117, 0.13203439, 0.26382103, -0.10198347, 0.22876809},
  {0.12550648, -0.03987944, -0.00000000, 0.28049489, -0.09154188, -0.19338463, 0.17686082, 0.27912216, -0.02855595, -0.02625629, -0.07986504, 0.05005690, 0.03677867, 0.17139397, -0.10021900, 0.00325479},
  {-0.60088697, 0.31729814, -0.00000000, 0.19235958, -0.74449361, 0.18889230, 0.69351187, 0.50506057, 0.14486049, -0.05400960, 0.20376501, 0.26384313, 0.54347130, 1.11253942, -0.06978490, -0.01265026},
  {0.01287885, -0.07520432, -0.00000000, 0.09848016, 0.03755306, 0.69399818, 0.11221508, -0.59789979, -0.32385297, -0.26823287, -0.56884670, -0.19335495, -0.20443907, 0.57602034, -0.22173103, 0.22725629},
  {-0.28519324, 0.02009217, 0.00000000, 0.33523841, -0.24554029, -0.08193505, 0.39396943, 0.45422516, 0.16995046, -0.07823753, 0.05178240, 0.13204481, 0.39453336, 0.00423173, 0.02952985, -0.06843556},
  {0.29962473, -0.22837564, 0.00000000, 0.06964489, 0.11463760, -0.29555340, -0.19448810, 0.33332033, -0.19363740, 0.01544676, 0.10853426, -0.02059450, 0.18371552, -0.41420179, -0.13869257, 0.01970759},
};

// Layer 2 weights: shape = (16, 3)
float W2[16][3] = {
  {0.88018701, -0.46489302, -0.70077617},
  {0.52632468, -0.37725144, 0.78604610},
  {-0.00000000, 0.00000000, -0.00000000},
  {-0.58152801, -1.04100191, 0.79655894},
  {0.55850558, 0.03301113, -0.44833883},
  {0.56674575, -0.33069213, 0.54342819},
  {-0.09941281, -1.14618304, 0.54944185},
  {-1.34183326, 0.87413433, 0.10744611},
  {-0.35630873, 0.40399857, -0.08193547},
  {-0.01598166, 0.39856792, 0.19753863},
  {-1.46485011, 1.35090630, 0.09580810},
  {-0.40148848, -0.84334672, 0.70925565},
  {0.15844423, -1.06906097, 1.01652779},
  {0.60144515, -1.91933379, 0.81745307},
  {-0.27739887, 0.25507660, -0.50293479},
  {-0.27499628, 0.43551592, 0.49970605},
};

// Layer 0 biases: shape = (32,)
float Bias0[32] = {-0.31601171, 0.65182998, 0.72700685, 0.48752296, -0.45322384, 0.45373671, -0.21960356, -0.23690743, -0.36947026, -0.04724502, 0.50211441, -0.36684623, 0.26756447, -0.29626584, 0.44087910, -0.26920073, -0.28215640, -0.24633373, 0.82657989, 0.11160427, 0.04079393, -0.20590021, 0.96053646, 0.83955957, -0.49349754, -0.17455476, 0.79950655, 0.00383368, 0.45887307, -0.21082095, -0.37869275, 0.37762371};

// Layer 1 biases: shape = (16,)
float Bias1[16] = {-0.26745040, 0.44574203, -0.12561480, 0.41690540, -0.10966771, -0.01894108, 0.47733253, 0.47221475, -0.07278299, -0.10987069, 0.44049145, 0.39647446, 0.49654521, 0.45778988, -0.28826107, 0.42594024};

// Layer 2 biases: shape = (3,)
float Bias2[3] = {-0.49339625, 0.48821527, -0.44420441};

